<?xml version="1.0"?>
<opencv_storage>
<stage1>
  <maxWeakCount>6</maxWeakCount>
  <stageThreshold>-1.0744112730026245e+00</stageThreshold>
  <weakClassifiers>
    <_>
      <internalNodes>
        0 -1 1062684 1.8610911443829536e-02</internalNodes>
      <leafValues>
        -6.3190186023712158e-01 8.7946426868438721e-01</leafValues></_>
    <_>
      <internalNodes>
        0 -1 413291 -2.9631771147251129e-02</internalNodes>
      <leafValues>
        9.3169981241226196e-01 -5.7139939069747925e-01</leafValues></_>
    <_>
      <internalNodes>
        0 -1 409545 2.5145430117845535e-02</internalNodes>
      <leafValues>
        4.5857021212577820e-01 -9.8464852571487427e-01</leafValues></_>
    <_>
      <internalNodes>
        0 -1 225140 3.0384033918380737e-02</internalNodes>
      <leafValues>
        -4.7786134481430054e-01 9.1519176959991455e-01</leafValues></_>
    <_>
      <internalNodes>
        0 -1 812062 3.5781110636889935e-03</internalNodes>
      <leafValues>
        -5.3586763143539429e-01 7.0726817846298218e-01</leafValues></_>
    <_>
      <internalNodes>
        0 -1 1084441 9.8204985260963440e-04</internalNodes>
      <leafValues>
        -4.8284953832626343e-01 6.8404865264892578e-01</leafValues></_></weakClassifiers></stage1>
</opencv_storage>
